digraph Tree {
node [shape=box] ;
0 [label="is_female <= 0.5\nentropy = 0.9735\nsamples = 712\nvalue = [424, 288]"] ;
1 [label="Pclass <= 1.5\nentropy = 0.7324\nsamples = 453\nvalue = [360, 93]"] ;
0 -> 1 [labeldistance=2.5, labelangle=45, headlabel="True"] ;
2 [label="Age <= 53.0\nentropy = 0.9686\nsamples = 101\nvalue = [61, 40]"] ;
1 -> 2 ;
3 [label="Fare <= 25.9375\nentropy = 0.9971\nsamples = 79\nvalue = [42, 37]"] ;
2 -> 3 ;
4 [label="entropy = 0.0\nsamples = 5\nvalue = [5, 0]"] ;
3 -> 4 ;
5 [label="entropy = 1.0\nsamples = 74\nvalue = [37, 37]"] ;
3 -> 5 ;
6 [label="Age <= 75.5\nentropy = 0.5746\nsamples = 22\nvalue = [19, 3]"] ;
2 -> 6 ;
7 [label="entropy = 0.4537\nsamples = 21\nvalue = [19, 2]"] ;
6 -> 7 ;
8 [label="entropy = 0.0\nsamples = 1\nvalue = [0, 1]"] ;
6 -> 8 ;
9 [label="Age <= 9.5\nentropy = 0.6113\nsamples = 352\nvalue = [299, 53]"] ;
1 -> 9 ;
10 [label="SibSp <= 2.5\nentropy = 0.9871\nsamples = 30\nvalue = [13, 17]"] ;
9 -> 10 ;
11 [label="entropy = 0.0\nsamples = 16\nvalue = [0, 16]"] ;
10 -> 11 ;
12 [label="entropy = 0.3712\nsamples = 14\nvalue = [13, 1]"] ;
10 -> 12 ;
13 [label="Age <= 32.25\nentropy = 0.5053\nsamples = 322\nvalue = [286, 36]"] ;
9 -> 13 ;
14 [label="entropy = 0.5796\nsamples = 217\nvalue = [187, 30]"] ;
13 -> 14 ;
15 [label="entropy = 0.316\nsamples = 105\nvalue = [99, 6]"] ;
13 -> 15 ;
16 [label="Pclass <= 2.5\nentropy = 0.8067\nsamples = 259\nvalue = [64, 195]"] ;
0 -> 16 [labeldistance=2.5, labelangle=-45, headlabel="False"] ;
17 [label="Fare <= 28.8562\nentropy = 0.3167\nsamples = 157\nvalue = [9, 148]"] ;
16 -> 17 ;
18 [label="Fare <= 28.2312\nentropy = 0.4736\nsamples = 69\nvalue = [7, 62]"] ;
17 -> 18 ;
19 [label="entropy = 0.4306\nsamples = 68\nvalue = [6, 62]"] ;
18 -> 19 ;
20 [label="entropy = 0.0\nsamples = 1\nvalue = [1, 0]"] ;
18 -> 20 ;
21 [label="Age <= 2.5\nentropy = 0.1565\nsamples = 88\nvalue = [2, 86]"] ;
17 -> 21 ;
22 [label="entropy = 0.0\nsamples = 1\nvalue = [1, 0]"] ;
21 -> 22 ;
23 [label="entropy = 0.0905\nsamples = 87\nvalue = [1, 86]"] ;
21 -> 23 ;
24 [label="Fare <= 20.8\nentropy = 0.9956\nsamples = 102\nvalue = [55, 47]"] ;
16 -> 24 ;
25 [label="Age <= 16.5\nentropy = 0.9906\nsamples = 79\nvalue = [35, 44]"] ;
24 -> 25 ;
26 [label="entropy = 0.7219\nsamples = 20\nvalue = [4, 16]"] ;
25 -> 26 ;
27 [label="entropy = 0.9981\nsamples = 59\nvalue = [31, 28]"] ;
25 -> 27 ;
28 [label="Age <= 5.5\nentropy = 0.5586\nsamples = 23\nvalue = [20, 3]"] ;
24 -> 28 ;
29 [label="entropy = 0.971\nsamples = 5\nvalue = [3, 2]"] ;
28 -> 29 ;
30 [label="entropy = 0.3095\nsamples = 18\nvalue = [17, 1]"] ;
28 -> 30 ;
}